{
  "version": "3.0.0-feature-engineered",
  "modelType": "nn",
  "inputSize": 16,
  "featureKeys": [
    "px_0070",
    "px_0115",
    "adv_glcm_homogeneity",
    "px_0254",
    "px_0042",
    "px_0099",
    "px_0076",
    "px_0104",
    "px_0238",
    "px_0053",
    "px_0004",
    "px_0153",
    "px_0176",
    "px_0106",
    "px_0214",
    "px_0052"
  ],
  "mean": [
    0.5891472537998178,
    0.4014091530740321,
    0.5328706641697794,
    0.44679663562835875,
    0.37711675868699596,
    0.3679401604916601,
    0.38696301297843166,
    0.6915625922077349,
    0.4497317072268913,
    0.39679320696869996,
    0.529988272604129,
    0.6644251123566145,
    0.4772891578707894,
    0.609829948472617,
    0.5712636984601791,
    0.3927142189906116
  ],
  "std": [
    0.2045560662032834,
    0.2147241080845356,
    0.03484227545591523,
    0.2428149791414236,
    0.18771502984225066,
    0.20348581587220477,
    0.20124774104468046,
    0.17213025557208364,
    0.23426764714507586,
    0.1918791005744962,
    0.23319143553941082,
    0.16673544515576685,
    0.22130015558794086,
    0.18979198465369165,
    0.179736308468781,
    0.2090912491368512
  ],
  "threshold": 0.5,
  "blendAlpha": 1,
  "trainedAt": "2026-04-05T16:53:25.621Z",
  "hiddenSize": 24,
  "W1": [
    [
      0.05066073847190895,
      -0.03645782052620081,
      0.05646922111908492,
      0.06002727245286125,
      0.05177880329655501,
      0.0018543108194684218,
      -0.018211904190007337,
      0.01581735704416373,
      0.0034766966067419436,
      -0.02918721848323746,
      0.03228157699290221,
      -0.035500041179439897,
      -0.020774483552486876,
      -0.003579291687466096,
      0.03435140478287245,
      0.01453693001720906
    ],
    [
      -0.04965019056145826,
      0.03949271981754462,
      0.04833829277900445,
      0.012037336351491424,
      -0.04005133962976689,
      0.015242069725611599,
      -0.055404295219038384,
      -0.019665569503426173,
      -0.0018717992385841745,
      0.006281398889870176,
      0.02471400596949191,
      -0.05346069445523073,
      -0.04190572222011006,
      -0.00005298341351088865,
      -0.04996048185810087,
      0.02142823857716267
    ],
    [
      -0.005275234230827948,
      0.02560156248714639,
      0.006194184139891341,
      0.03620300152680489,
      -0.047925194273983056,
      0.0056129554404813365,
      0.051340372059799584,
      0.022746493127585175,
      0.02854561533192121,
      0.019689024792118055,
      0.03583921526312699,
      0.055981529463616383,
      0.0017409092539332816,
      0.0054873222515596535,
      0.022795634014944333,
      -0.016555570098203798
    ],
    [
      -0.027329447603383912,
      -0.0069884744203173935,
      -0.024690873100986478,
      -0.03249026724178946,
      0.013662938946104819,
      -0.04577592753046975,
      0.007226738942003595,
      -0.023528886094371215,
      0.022718517521502772,
      0.0005683650735748417,
      0.04597254833619573,
      -0.04327877626140617,
      0.010114493050282941,
      0.053723164523061015,
      -0.055123002991732103,
      0.058076918375544254
    ],
    [
      -0.014035045790452966,
      -0.039584694408059916,
      0.005244853465541035,
      -0.04240068453077858,
      -0.0008785227734013661,
      -0.026139173378050832,
      0.008326511815559363,
      -0.05672318419353952,
      0.03194539083622166,
      -0.013185911910500153,
      0.021909585805700058,
      -0.03824173432627846,
      0.011206854277591782,
      0.0336835936772745,
      0.04054310646423731,
      0.04834069762437036
    ],
    [
      -0.04653757574467592,
      -0.02661511094244873,
      -0.0488734889544077,
      -0.045749931898124825,
      -0.036263992955728075,
      -0.03323434831227212,
      0.00666526401919272,
      -0.05069196512908116,
      0.0033605806710359314,
      0.021542411325079697,
      -0.0004712139592422236,
      0.00365136404128572,
      -0.05360723852882494,
      -0.0030655658679853196,
      0.053723221836390715,
      -0.0025398502362647683
    ],
    [
      0.014240089053240963,
      0.023274993767616298,
      -0.04897931105455692,
      0.00066589875513456,
      0.009227481632509124,
      -0.024797101518743925,
      0.04794849155874461,
      -0.05589724334197366,
      0.04720209662117152,
      0.008278525117722499,
      -0.008288399265242264,
      -0.037043124137061297,
      0.008734738219053762,
      -0.01252872775493394,
      -0.04282363271887134,
      -0.010902228137881845
    ],
    [
      0.04279531015081186,
      -0.031418589403711644,
      -0.04404979442488755,
      -0.04670192910889289,
      -0.023942468382256707,
      -0.03910843304394704,
      -0.03771383255850426,
      0.051535803609327475,
      0.05037488556063595,
      -0.052448544590513235,
      -0.0199054842862331,
      0.05817893357285775,
      0.0017167686545164961,
      -0.011335577767258352,
      0.04878079284691647,
      -0.038583516156074894
    ],
    [
      0.023877014872117446,
      -0.058947858093436646,
      -0.029386871132860294,
      -0.01517102742883612,
      -0.02247607251066846,
      -0.010007461790409984,
      -0.03174859743026032,
      -0.03711666712035678,
      0.04270773387596088,
      0.030342913753376846,
      -0.038039336154682454,
      0.05554056664943994,
      -0.030867262797133827,
      -0.024246999899607203,
      0.05133591190526495,
      0.0275226697354194
    ],
    [
      0.02170976358410669,
      0.0026250811223310767,
      -0.039861654524377864,
      -0.012311406633836156,
      0.013622452358262732,
      0.048443848925301826,
      -0.02297607952907512,
      0.01632239481568049,
      -0.011244282306858863,
      0.007468971492130546,
      0.05357690557149699,
      0.030292606348014468,
      -0.0173958725209025,
      0.05725421788792119,
      -0.017496677749587866,
      -0.05355103282455256
    ],
    [
      0.0006342710217422207,
      0.04021586909307723,
      -0.005392814635033787,
      0.007137664857517105,
      0.05031534294654868,
      -0.028874973472029802,
      -0.04350112490735239,
      0.03631049329744684,
      0.03851595118595498,
      0.03830810837211943,
      0.04105885689558694,
      -0.031068087806186768,
      -0.056106724226744106,
      0.052195245285820834,
      0.04356417809168198,
      0.04852880702035698
    ],
    [
      -0.03576727404037218,
      -0.010560990902232833,
      0.04060653854319102,
      -0.012978369326279424,
      0.05931890360758177,
      0.009465876613796066,
      0.049414052075378266,
      0.018222359414778965,
      -0.007530790409374014,
      0.010579641959386267,
      0.0009297854259414428,
      0.036206969989300654,
      -0.058245799887415,
      0.05403341541208778,
      0.006216814436840888,
      0.05565053370165814
    ],
    [
      0.054698354303162416,
      -0.007842441292105663,
      -0.0541234031866498,
      -0.02742710285236189,
      -0.04873768341218534,
      0.001067882819957749,
      0.04133332719938793,
      -0.042186391289039685,
      0.016960463467092363,
      0.005591326383374226,
      0.05473386014937545,
      -0.004830062707361408,
      0.059180997977560726,
      0.0221349015334269,
      0.017136911605005956,
      -0.04857889666489041
    ],
    [
      0.004538342646915704,
      -0.014346642615283477,
      -0.036563479769322116,
      0.04883794794087346,
      -0.011012649062368018,
      -0.0122727618506843,
      -0.04743216681414856,
      0.008339799057877406,
      -0.06042554682334883,
      -0.02578232275326193,
      -0.03946879408154453,
      0.015081124376367314,
      0.017004427283011422,
      -0.042184254577828054,
      -0.004383271885437861,
      -0.014375567172075825
    ],
    [
      0.008709357506715325,
      0.040427550230932446,
      -0.015213365783943998,
      0.03870137341942068,
      -0.033396541145905886,
      -0.022980970235305608,
      0.011419888045829498,
      -0.050522913169385904,
      -0.024514383033221687,
      0.042698802727633205,
      -0.03420811782670476,
      -0.05149421485843502,
      0.03166519511450643,
      0.030916579516666726,
      -0.005783577907396956,
      -0.049697586644078896
    ],
    [
      0.006870942482185228,
      0.03866552060006409,
      0.05470331001184554,
      0.02062316198181913,
      -0.05780218883148909,
      -0.053576475824343064,
      -0.021700871721866383,
      -0.024524260321006627,
      -0.03693829454463825,
      0.05550048342386569,
      0.007531788257712925,
      0.007367152064063404,
      -0.045360839783520394,
      0.039218154907972154,
      0.049372351299747076,
      0.054875423760403545
    ],
    [
      -0.056090973707273936,
      -0.02328393304736607,
      -0.054944257669685345,
      -0.050996213443416656,
      0.01094435578712352,
      0.05377407852680186,
      0.03554861861858654,
      -0.02130093067912547,
      -0.05194992129576752,
      -0.05908184326057504,
      -0.03872018615039685,
      0.024090506123651052,
      0.010079568695608854,
      -0.0118985685511065,
      0.00806052572527717,
      -0.031588066863060225
    ],
    [
      -0.04900643757963685,
      0.014808854133155762,
      0.04140353932062958,
      0.03342630168345815,
      -0.05830987146748402,
      0.05415813027283332,
      -0.03858254263678947,
      0.003666237564127542,
      -0.02337126617934146,
      -0.006195513311032185,
      -0.03394085999339795,
      -0.03181364458670154,
      0.037274060704262764,
      -0.04736500110422067,
      0.0006540101270456852,
      0.03991379731773152
    ],
    [
      0.044061408591025454,
      0.03298032025119962,
      -0.0577418360682727,
      0.007417096736921732,
      -0.060181813374484146,
      -0.005698168495405093,
      -0.003381103957055342,
      0.009469735902570643,
      -0.01981846641569782,
      0.03321979030588477,
      0.01896889604344529,
      0.04351405054777777,
      -0.03406707270127438,
      -0.004304283634047471,
      0.058221067289183734,
      0.010910418606848639
    ],
    [
      -0.007498610082978848,
      0.046844181236576764,
      -0.027514554392879663,
      -0.03371070314561471,
      0.014849767100709753,
      0.008802954767627139,
      0.0013597679406662782,
      0.042697350418961895,
      -0.053924783101952777,
      -0.033042692898631855,
      0.05127850333363781,
      0.009507416698689703,
      -0.03850982923038527,
      0.05738945244469192,
      -0.023385294450395052,
      -0.03929658483229972
    ],
    [
      -0.03446409977148843,
      0.016219856850969355,
      -0.01557978668410666,
      -0.03910556819267204,
      -0.03668658531076354,
      0.0438320581570228,
      0.03670372057090911,
      0.04363630339291659,
      0.012752042573265758,
      0.03220287595465793,
      -0.013421577936344187,
      0.04549578263513763,
      -0.03780704185469222,
      0.005072475495118529,
      0.02168238932248627,
      -0.031189629633238777
    ],
    [
      0.05627734225782184,
      0.03391319643616727,
      -0.019636831602252457,
      0.02594823136268251,
      -0.057873370976190115,
      -0.03492928431534964,
      0.055426023813297066,
      -0.010139285081121788,
      -0.019503409529834547,
      -0.042433072153947295,
      -0.041442983219603616,
      0.023589787433024534,
      -0.05742704327865535,
      0.03776595053889948,
      0.05245980582992948,
      -0.04695812817188713
    ],
    [
      0.05335103395205133,
      0.006354648230657458,
      0.03005867697718444,
      0.0021971502236553912,
      -0.04818926091540637,
      0.05662357970674689,
      -0.041072923299150174,
      -0.019066520019310626,
      0.02113268048729718,
      -0.03035035697152996,
      -0.021803317385195746,
      -0.01894411493739251,
      -0.05529994900969463,
      -0.04905384537294171,
      -0.027058246723116998,
      -0.02619910354290549
    ],
    [
      0.02999672626276628,
      0.055787689721708875,
      0.01183972682585832,
      -0.008037531401590988,
      0.04825843422164556,
      -0.03438107331167844,
      0.04800622975448506,
      0.057293548875365106,
      0.0023596165483483356,
      0.04522087809897788,
      -0.04433891252938918,
      -0.004079723148257358,
      0.050551021790346304,
      0.002925309729804883,
      0.015703101760442078,
      -0.04563744309236926
    ]
  ],
  "b1": [
    -0.0003079348408440504,
    0.00007107050647253295,
    0.00015830549254300963,
    0.00011327729446592021,
    0.0001771070271544478,
    -0.0005103004281754572,
    -0.000590013708381551,
    0.0016189961398205047,
    0.0006044413198360766,
    0.0000718030388197072,
    0.0000041202102662787955,
    0.0002040458295105094,
    0.00007659376560167138,
    0.0008808203044946245,
    0.0005056116195167767,
    0.00001887133354730133,
    -0.0003112647156528056,
    -0.00030993196460819437,
    0.0012555526170543012,
    0.0011748904237509502,
    0.00001924207352958078,
    0.0011412232346779936,
    -0.00003684480465946664,
    0.0002036762246766587
  ],
  "W2": [
    -0.03877727426472482,
    -0.006453922676558502,
    -0.039857147966126695,
    -0.01660216672790064,
    0.05548126301258005,
    -0.03726955848428766,
    0.03552233947950106,
    0.0633033128715692,
    0.02935587071423244,
    0.005300972650027668,
    -0.007489586572632637,
    -0.04357080907072863,
    0.005882175006148204,
    0.052111479223242635,
    -0.0307216830522057,
    -0.007155479940039442,
    -0.034697412341583016,
    0.008314383842073489,
    0.04511643626789896,
    0.060179877520191265,
    0.008473912685034567,
    0.04807469523100223,
    -0.005623263208976943,
    -0.020211462588857743
  ],
  "b2": -0.0011497013090306296
}