{
  "version": "2.0.0-hybrid",
  "inputSize": 15,
  "hiddenSize": 10,
  "mean": [
    0.6543623135014334,
    0.7393723824887346,
    0.2677838060954971,
    0.29171176270016774,
    0.3099886568290208,
    0.7709223127796446,
    0.995830302706637,
    0.0006545453667990539,
    0.0035151519265639495,
    0.34732545923494196,
    0.9938949670373175,
    0.587389668528915,
    0.9286641406951266,
    0.5811557252552745,
    0.4213275564102355
  ],
  "std": [
    0.006645247662589763,
    0.21126264549328902,
    0.03360263389705072,
    0.034146986493754763,
    0.32051280672379656,
    0.006682136821278896,
    0.002577118777871922,
    0.0005176304683865552,
    0.00210802606832498,
    0.1551760615900131,
    0.03794907404214254,
    0.05646736082941414,
    0.03920625045096207,
    0.0483995155807406,
    0.14601078917939506
  ],
  "W1": [
    [
      0.05644867199970978,
      -0.004283486160256116,
      -0.01358869314360611,
      0.009221070924888386,
      -0.013756790743218908,
      0.008812200807766866,
      -0.03627114528244493,
      0.056683491337996286,
      -0.027210572969801963,
      -0.019748985448546245,
      0.06265249035213373,
      0.038428693252599275,
      0.0027630709710508585,
      0.03235173800900266,
      -0.03931676286627885
    ],
    [
      0.0716763861287489,
      -0.060368535333870744,
      -0.012126183620238899,
      0.0736191354099472,
      -0.03543400300690875,
      -0.051832470611759975,
      0.02411818169277672,
      -0.03891735313908892,
      -0.014389875708111536,
      0.00011683678307902336,
      -0.05556916065460919,
      0.06860874368787816,
      0.04300111487114348,
      -0.06823509934437419,
      -0.05298129012763504
    ],
    [
      -0.06884298169606476,
      0.022440587987453,
      -0.041688946102268885,
      -0.07233916773940163,
      0.03425331565200824,
      -0.007982979033989137,
      -0.019381064420322322,
      0.0369298519862647,
      0.03932206315592379,
      0.06723501600663881,
      0.025495085157890243,
      -0.06903213506527642,
      0.007532521362118764,
      -0.017051132730072648,
      -0.04828420900490982
    ],
    [
      -0.039666258823065986,
      -0.038810008754173286,
      -0.0302175592332665,
      -0.04986417856606305,
      0.017670750125887206,
      -0.06352394150682529,
      0.014390123052042835,
      -0.0399116367035718,
      -0.0016595990941299882,
      -0.02662470395400148,
      0.07011202158536002,
      0.06981900286529454,
      0.03175767243522408,
      -0.012148795821166184,
      0.004920276878373941
    ],
    [
      0.06996909665915811,
      0.07067940374113478,
      -0.03847873687392793,
      0.06798978722169087,
      -0.06920381068080093,
      -0.056870996010936856,
      -0.03994119193541092,
      -0.0538336921152405,
      0.05912991323712545,
      -0.06913224606133075,
      -0.05464177918043758,
      -0.041311713875653175,
      0.03185340501681032,
      -0.04912485146700894,
      0.05070121967787006
    ],
    [
      -0.06580458639910675,
      0.018853128470771956,
      0.018320214107703566,
      -0.004643566664035814,
      -0.049630046849853574,
      -0.02136422799805571,
      -0.023379555056847544,
      0.03529470872425043,
      -0.028531351647215132,
      -0.015847854811673574,
      -0.012625215529500631,
      -0.01926122544183018,
      -0.000495840592529972,
      -0.02543790992534981,
      0.030577010028609
    ],
    [
      -0.016698760297067766,
      -0.04866468644106489,
      -0.0031109711011468068,
      -0.017556568852999888,
      -0.03366235142958924,
      0.04942765349958018,
      -0.03263579336078102,
      0.015642864771911666,
      -0.03057347492155618,
      0.06927459653151494,
      0.047727080537263995,
      0.012155074393685381,
      0.03014410326099536,
      -0.07376680863394874,
      -0.06282984889424767
    ],
    [
      -0.0014624337809780923,
      0.0056094486713254565,
      0.02277925274999279,
      0.05346031739504777,
      -0.016896097224969753,
      0.01407514718907249,
      0.033462312354772004,
      0.05640666176457509,
      0.01706618780792336,
      0.04472023651263652,
      0.013672692046007105,
      -0.052174974148953494,
      0.0015918136696285695,
      -0.049568745245236696,
      -0.010529810244209858
    ],
    [
      -0.05034715314748799,
      0.013732114616613075,
      -0.055370641683595775,
      -0.06738846836956862,
      0.05427043868693532,
      0.03340956497584958,
      0.05350923141393436,
      -0.013125863082327651,
      -0.02167849486015505,
      0.02808087688986058,
      0.07158238540646776,
      -0.024649372886266764,
      -0.00027944844463469057,
      -0.024811126389372166,
      -0.05270777246107999
    ],
    [
      -0.06171074706704932,
      0.019865578546932817,
      -0.056002478269653676,
      0.02270818082502106,
      0.022282159058542448,
      -0.03887546978676708,
      0.059689299538206536,
      0.0614970412469855,
      0.018002118967644063,
      -0.04011252425071279,
      -0.024118860432419054,
      0.027793916056923617,
      0.01977645896354241,
      -0.04044250286216922,
      -0.004907114720238093
    ]
  ],
  "b1": [
    -0.000015965226227605602,
    0.0001693375465735479,
    -0.0004312053043228069,
    -0.00004274636186626155,
    -0.00013182756161404512,
    0.0003784360037171011,
    0.00006501150397136469,
    -0.0003058600273641052,
    0.000027597499692610613,
    0.00010151821701742297
  ],
  "W2": [
    -0.0015569804304836367,
    0.01670917702070758,
    0.04751278196001745,
    0.02091591109372428,
    0.028644495694049237,
    -0.04459702742600044,
    0.036465033784008116,
    0.043661400222855064,
    -0.04436265137151984,
    -0.0296616832924164
  ],
  "b2": -0.0006122994708156803,
  "blendAlpha": 0.75,
  "threshold": 0.44,
  "trainedAt": "2026-04-05T16:19:43.741Z"
}